232
-70
-161
301
-227
-138
-49
214
-229
-137
290
-563
-529
-537
-125
-581
295
105
71
344
-678
13
227
-212
-416
-485
89
-255
-435
91
-344
444
551
-251
-150
366
-474
272
-111
-601
0
0
0
0
0
0
0
0
-422
103
148
57
-649
-223
371
516
-90
-444
-109
-272
451
199
-304
608
616
147
-362
-522
19
7
-210
-665
0
0
0
0
0
0
0
0
-287
-133
214
66
31
56
57
313
14
122
79
118
-286
163
30
196
-68
-74
-98
152
-228
-127
73
-86
-298
-217
-146
-294
66
66
100
105
-7
32
127
8
-47
35
243
99
0
0
0
0
0
0
0
0
13
-201
-32
-240
205
-135
-132
93
-50
-144
-168
439
-110
-103
86
195
-217
184
108
-188
-7
-36
214
18
-154
-148
-127
-68
207
-97
94
-178
3
32
-190
295
-127
55
34
194
0
0
0
0
0
0
0
0
-169
-264
59
159
178
29
-58
-164
-58
-60
-212
98
-161
27
96
66
-142
71
74
253
-128
88
-2
-47
-214
-238
-95
56
-22
32
-30
15
-23
-117
-213
-68
-127
21
117
-10
0
0
0
0
0
0
0
0
-29
44
28
-28
53
-111
-31
141
-153
-112
134
24
2
11
28
83
80
-56
108
113
1
407
136
40
139
-43
-109
56
71
-55
-30
-24
-161
-50
57
107
-78
61
74
122
-7
123
53
-303
276
243
134
-30
-87
35
96
-286
75
-5
129
-95
-247
-102
-92
101
-112
64
-51
-25
-41
117
122
-223
53
-43
6
-142
150
-6
-49
44
-69
66
302
-131
155
126
49
345
16
-31
-74
167
13
135
128
-44
-157
-37
-70
34
19
13
-100
51
-297
40
82
31
-130
63
29
78
-148
-201
-180
-137
-230
-169
-108
50
291
-99
107
-141
182
-189
-231
203
-108
110
143
-264
-42
12
70
-197
10
134
-169
-261
157
-111
112
14
-171
-126
-44
89
173
-6
-215
156
89
-127
173
-97
47
-32
-17
-136
-25
168
-130
-63
49
33
77
100
18
198
-128
-78
144
-115
88
-40
-109
-170
142
-120
138
-63
-31
0
-235
4
107
31
-51
21
34
-168
-105
123
-87
-150
18
-85
8
-42
204
-333
-101
-28
176
-61
122
-123
-58
-98
176
45
-185
-32
-133
156
0
5
-123
32
-10
-136
-7
112
38
-27
117
59
-151
-100
-180
119
-53
138
155
76
69
99
154
90
5
135
79
-67
-83
43
138
111
-63
-79
31
73
93
-50
9
-70
-64
-94
-40
124
86
55
48
168
62
41
-61
-55
-220
-32
-140
-83
-22
115
28
221
239
34
76
-109
104
105
51
71
-118
-54
84
211
176
-176
-68
164
-28
-29
-29
-108
73
-3
62
106
-12
-86
-68
-95
164
-67
80
65
44
-24
-28
-27
56
-45
-148
100
-30
-63
-4
-60
-1
-44
125
404
7
137
-93
125
29
112
29
39
56
80
-73
-87
135
-64
-9
-65
-207
20
133
-7
-139
-58
16
-98
61
-32
-44
-42
-33
-61
200
-57
-9
-66
-8
-73
90
12
68
58
-54
-15
36
-45
-59
57
92
30
44
-40
78
39
-27
4
16
-44
-123
-83
-27
90
-58
-102
-81
70
