55
-49
65
218
-209
215
120
215
20
119
-57
-3
-25
320
105
136
183
-23
159
-54
39
78
48
157
122
95
58
41
68
172
27
-2
109
-56
50
101
90
212
46
-2
39
172
64
101
25
-18
-55
32
-46
131
206
5
119
171
108
75
188
-2
15
52
48
24
-36
99
52
56
77
-4
227
85
71
68
-31
46
149
72
139
189
49
164
12
33
155
-4
93
76
7
-6
0
0
0
0
0
0
0
0
-24
17
127
35
38
48
7
-17
75
10
2
45
-20
85
25
-66
99
77
88
78
45
79
43
71
103
-93
21
52
-52
114
-6
36
83
183
-27
167
142
-13
-32
-99
96
24
60
8
167
190
83
71
-65
1
-34
50
25
135
104
77
25
23
-80
-46
119
81
14
-41
120
20
18
91
85
27
23
47
54
15
60
-32
126
60
-21
1
108
71
94
101
87
14
-17
130
0
0
0
0
0
0
0
0
73
36
153
88
-75
-40
177
-83
111
78
33
115
-3
2
64
34
75
117
-68
100
-16
138
56
-83
64
65
94
49
74
-6
-51
141
113
91
68
137
-41
62
141
69
126
-108
41
218
53
156
-44
138
48
38
-8
72
-32
32
125
62
61
116
21
92
-52
210
-9
30
17
22
13
13
-28
84
34
-5
11
110
90
76
47
70
32
-36
-124
198
-31
137
68
-45
0
-40
-2
37
-23
-33
25
-17
119
62
-43
-46
-19
74
14
-16
-23
-106
-175
-130
8
-1
-8
65
154
-82
-112
-60
-131
-94
4
131
21
23
89
89
94
244
-36
-74
-12
38
24
-93
155
-104
97
13
-49
-116
68
-14
98
80
27
65
-60
-46
-84
12
28
-99
150
-74
34
-13
-56
-14
30
-92
-44
69
-25
-113
91
17
47
-68
113
-98
-132
-118
21
54
-92
21
-110
-62
-15
-10
-10
186
67
-45
-59
31
-25
162
-22
-29
-39
38
152
-58
-116
-77
-45
14
54
-90
-4
-84
-66
119
-10
21
224
23
-164
138
122
-23
96
-65
52
2
12
-94
265
91
-2
11
-56
141
-12
-28
-86
-7
15
13
-25
247
-9
-144
-111
-111
-79
-20
-82
76
202
-67
87
-135
-100
60
-18
52
87
-11
29
-22
22
-85
-69
13
188
18
5
160
-27
-52
-17
-74
121
-33
62
58
44
13
-8
-21
32
210
-17
-68
20
21
38
-21
81
-89
62
40
71
-49
-71
-105
18
35
26
-55
15
65
-65
-4
-55
-37
-22
6
91
35
-8
22
-114
-157
62
-22
-29
146
-46
-50
20
-81
129
11
27
103
63
-131
-43
1
-23
-44
78
86
83
140
80
-56
63
-56
-21
177
-27
-19
0
116
84
44
-136
-31
-40
-54
-85
31
19
33
21
-26
21
33
-137
-116
-76
-112
-123
18
-112
-124
57
-4
-14
-119
-97
-11
15
-170
-97
-75
-165
-61
72
-67
-5
30
-22
-80
-19
40
-74
-125
-146
-80
-23
71
60
49
-79
-101
-73
-87
101
-52
34
98
-69
-32
15
-59
-96
-47
-58
57
97
-166
-25
3
2
30
-124
-109
-96
-65
-8
-108
-75
-124
-20
29
-113
-113
19
-75
-63
29
-94
-129
-31
-76
-22
-101
-39
-68
-50
-48
-109
36
-30
-83
-23
77
-9
-23
-136
-113
-150
-136
-71
-6
-68
-90
51
66
-90
61
116
-59
-33
-78
-69
-51
-249
11
-10
-29
-52
9
-75
48
-19
-61
-67
6
-142
-23
-132
34
80
-6
-124
-117
-48
-112
-32
-114
-66
-50
-18
56
-19
9
83
-58
-26
-53
-89
-113
25
5
28
-122
-84
17
-117
-48
88
-17
-36
13
-32
49
-94
127
130
52
-77
-9
23
-14
39
-126
73
84
-71
47
-76
-63
-52
-21
145
33
-4
4
-74
-65
-94
-107
-49
-59
-93
104
72
-113
15
29
-95
27
-40
-111
95
-3
28
-35
-131
-145
59
-65
-13
-27
-64
-80
-45
-114
-71
-44
52
-58
-60
-63
-107
-123
64
-24
-112
-53
-194
-161
-122
-32
-75
27
-13
-89
-159
71
-47
-97
145
40
104
57
27
-79
53
-42
-83
-52
-29
2
-125
40
-14
74
-71
30
-68
30
36
181
-7
65
-25
-34
14
65
80
-44
-52
-53
-83
89
-171
-37
-104
-17
-17
-29
7
-49
-20
52
77
-42
39
-117
11
21
-53
46
76
-7
11
-5
37
-107
4
43
6
71
38
-112
-61
-10
31
-41
-9
-53
10
-32
-19
36
-64
1
-134
3
53
17
-23
-131
-77
75
-4
-23
-97
50
12
-117
59
-26
95
31
-90
141
-72
-36
112
-11
-15
-6
-75
211
32
30
87
-17
-81
-64
42
17
0
0
0
0
0
0
0
0
34
66
-24
-29
106
-72
-3
-29
100
-51
-87
-5
-7
-110
-20
-29
18
17
-80
-35
-61
72
-58
36
-7
46
69
-27
-75
8
44
-199
-133
26
-43
-21
-8
-49
-46
-180
-77
145
-146
-72
-34
-68
-82
2
-110
2
-4
21
-120
-21
47
25
-65
36
-4
-93
-55
112
-51
-59
-17
21
51
25
-59
-130
-23
-56
-146
-19
1
-77
-13
11
78
-87
25
-142
-50
7
-47
-37
-10
88
-40
-38
-5
62
-111
-109
-42
117
49
-60
-77
-40
77
32
34
7
52
-44
133
-25
40
0
35
-111
-57
-101
-18
-67
-51
13
-63
36
41
-189
-64
41
29
-54
-50
-29
-79
-55
-55
75
-235
-51
-82
-41
-217
-22
17
-12
79
217
-102
35
-58
-16
-146
-132
-14
-93
5
55
-40
-4
-18
32
-71
12
41
24
-17
-87
-112
-73
3
-5
-68
71
-134
-90
139
34
-22
-56
-61
-79
-25
23
-35
-12
-54
-61
-33
-86
-89
30
-3
33
3
-14
44
-6
45
-114
83
-119
4
-35
97
-10
-95
96
-48
-25
-141
17
126
-52
29
-72
-22
-115
-118
-31
-36
-93
6
-50
-48
-6
-17
-83
61
-69
-75
-45
-68
62
-107
-20
-101
-25
-30
65
-257
-49
29
49
-15
-3
-33
16
53
-89
-22
36
-40
-64
21
34
-18
9
36
30
-23
126
-58
-80
46
-56
-69
85
97
18
-64
-36
28
-22
-15
-63
-228
1
6
27
-21
-81
-108
-43
-77
8
-62
-50
29
-165
73
20
-69
46
-2
-107
26
-59
34
-99
13
8
-3
-74
-3
-53
-113
-191
-28
-10
-29
62
-7
-4
-13
-121
54
25
-29
22
-107
26
21
-28
70
22
-65
-65
-13
-100
57
-25
-6
2
-150
-73
27
-31
2
36
-36
104
8
-12
-100
55
-11
74
-87
160
-66
-54
29
73
2
1
-70
-3
22
34
-138
-57
-15
-27
-26
-150
-173
-5
-14
5
-25
30
-37
-7
-22
-99
-41
13
29
-159
-57
-57
-136
-96
57
-31
-15
-42
-89
-13
19
-37
-75
-76
-39
-34
72
-38
7
-36
-5
-51
-5
-138
-73
-6
-48
12
-51
20
68
-27
-13
67
71
-72
75
-70
-56
-104
202
1
-122
-50
-72
-25
-7
-4
-262
-69
-160
1
-19
-87
-50
-28
-41
-35
0
36
49
36
51
-95
-125
16
1
-22
-25
-67
-122
-63
4
-25
-17
54
-131
-58
-37
-85
-106
-43
32
40
-28
-71
79
61
-18
27
32
-67
9
59
30
-8
-155
-187
-94
16
-8
16
-216
-207
-99
-107
-35
2
-18
3
-47
-108
-33
-24
-52
-43
-21
138
-51
108
13
-266
91
-23
-55
-191
-26
-270
-55
57
-70
-23
16
4
-73
-6
-103
-120
-246
6
-85
-53
13
-96
-13
-27
-24
-23
-18
-45
-44
-71
-63
-67
-55
-177
46
-114
-52
-40
29
-70
12
17
-100
-61
-28
-16
70
37
-79
-162
38
-42
-84
-43
6
-66
-28
-75
-37
19
-9
-139
-141
-36
0
-97
72
-12
-65
-92
-3
-27
-24
2
13
3
-27
-18
-93
70
-19
-64
36
-3
-83
-3
16
-15
-73
1
-79
-59
50
53
-53
35
-99
-105
-146
-59
-50
-49
-34
-107
-15
-81
-48
-36
70
-82
-132
-82
51
-57
-107
3
-93
-163
-21
101
-21
36
9
-95
-31
12
1
-162
-48
-64
-31
44
-40
14
40
-9
-79
-62
-45
-121
-42
34
-133
-18
-165
89
-12
9
-196
-9
-49
-32
-122
-107
-35
-19
-64
-13
-72
-27
-53
-10
-4
-58
-54
-58
99
-68
-23
32
-55
13
-129
-6
-32
-18
-74
25
-6
-27
-94
-22
-51
-31
-29
-9
133
-100
-147
-18
16
41
28
-130
-152
-6
47
-79
61
6
-30
2
23
-50
88
-1
-57
-184
31
-21
-107
39
-56
1
-60
-56
22
-194
-73
25
-15
70
15
15
-73
46
39
-35
-117
80
-71
-65
-130
31
-88
-6
-27
-21
13
-40
-12
-75
36
-61
-26
-5
-13
-64
-178
-11
20
-45
7
-21
-88
-93
-72
14
34
-2
-52
40
64
-97
-99
49
-21
-48
-26
-81
1
3
-145
-79
-55
33
19
-12
-1
43
2
15
-45
-85
-48
-87
-17
26
-100
74
-5
49
-13
9
-57
8
87
25
15
-60
13
-10
-44
-1
113
-15
41
-4
-106
-32
13
56
-101
-59
79
7
10
-95
-48
-36
8
-37
66
-36
-67
-75
-31
-1
106
-35
-114
-19
1
-11
-21
-35
-105
-18
-32
0
-161
-63
-29
-7
-145
6
35
-30
-50
-119
-56
-7
17
-49
-19
-38
0
-62
23
80
-65
-55
-30
-99
41
-123
-29
-84
-9
46
-27
-32
-169
-79
-92
77
-38
61
-89
-25
-163
11
-68
-46
48
-28
-58
-48
22
-45
-80
16
-110
8
-65
-76
-55
-166
-32
-26
-19
-67
61
-51
91
36
-3
-28
-99
-27
-195
-92
-58
-25
-33
-90
44
28
138
-44
-61
-37
94
13
-84
-160
-94
-36
-19
-53
-53
15
-131
-77
-19
80
-131
-115
-119
-4
-46
-93
75
-82
-47
18
-16
1
-88
-18
27
-40
-35
-39
-83
15
-28
-91
-110
-56
-124
29
21
-48
38
-55
-58
-34
-12
36
-88
-56
-75
38
-24
79
-131
-76
-119
53
-25
20
-73
-40
-25
-33
-88
73
34
-7
41
100
-14
-113
32
-105
-87
-74
-41
-52
-38
-80
-107
24
-49
-83
-137
-6
-105
-146
6
125
12
-27
-5
0
-135
-13
0
44
-109
-179
-223
-49
-3
-49
22
-32
12
0
-43
7
4
0
-22
-6
0
-9
-19
3
25
-85
-24
-1
-73
-3
39
12
7
-33
-86
51
-57
0
-22
-72
-65
-7
-134
1
29
0
-24
-191
-12
0
0
-21
144
3
20
-1
-183
-21
-56
5
1
3
-68
137
-1
-38
-150
-6
-14
0
34
-6
-40
-122
-71
13
-8
79
-129
-209
-131
54
19
165
-100
2
-55
0
-39
-29
-93
0
-40
12
23
10
-3
-28
-34
-2
-58
26
13
-118
-89
6
-31
2
-198
-190
-13
2
-45
9
6
49
6
0
14
-189
-98
-3
36
-42
6
-7
22
-8
2
-1
6
-92
-47
-14
-101
10
-1
-51
-116
-10
0
-13
-140
55
-27
7
35
-14
-1
17
63
117
-71
12
-121
8
16
1
18
-69
8
-74
23
2
-17
7
-43
-79
-145
4
-55
-90
89
-65
-38
88
13
-33
-56
-99
-48
62
-104
35
-15
92
0
-107
-204
-201
-33
19
-33
-228
-21
-109
-100
-3
16
-24
-47
11
-8
-2
-15
-131
-173
70
-57
-23
0
-97
31
-17
-13
-220
14
10
1
-23
6
0
58
42
5
-105
1
-40
-161
9
-44
15
-55
15
-6
-41
10
-145
-185
-59
-20
-85
10
-108
32
72
-128
3
13
-18
0
31
-62
-17
0
-25
-103
0
52
3
30
55
2
-15
5
0
-101
85
-46
8
64
-65
-16
-110
-26
-52
2
-1
-71
44
1
-3
-3
-38
-84
-1
-60
-78
-87
16
19
-106
-4
-75
36
-7
-10
-78
-5
-1
-130
-43
2
-91
27
-121
112
0
7
18
22
-13
-25
0
-163
-5
-16
6
35
89
4
-34
-121
-6
18
-48
-69
31
11
-20
29
61
5
-42
-111
21
6
-33
-25
-127
30
36
-4
12
0
-9
0
-161
-19
48
5
0
24
-154
-12
-158
-17
-114
6
-9
-79
32
-163
-220
6
-144
-9
-3
17
-52
15
23
-5
-15
-204
-8
-86
-54
69
95
-176
-64
-5
3
102
9
-98
37
6
11
10
0
0
-37
-60
70
-117
1
-40
-10
49
0
29
-13
-85
-3
2
6
-1
-164
-28
-60
13
4
-10
-164
2
-25
-21
-71
-82
0
13
-108
-75
-16
-113
-33
-10
-96
15
-3
-100
-31
-69
33
-16
-21
1
1
-125
-29
-61
0
-23
3
0
33
-174
-40
-158
0
-123
31
66
20
60
-64
-142
-3
-88
-86
17
-79
26
-10
46
14
-117
-39
-73
-203
-162
10
-158
-96
-44
-80
75
-50
47
-68
17
-76
24
0
-4
-102
-53
3
8
-111
-78
0
-10
11
7
-36
-41
-14
41
10
46
-58
-73
2
-21
-3
-4
6
-11
-206
6
-4
34
14
0
9
-28
-99
3
1
50
-43
0
-7
-73
0
-88
-13
-87
21
-18
3
-81
-5
-32
-94
10
-105
-73
12
19
0
-2
4
27
45
19
12
-4
47
-81
-1
-32
-28
-31
-6
2
15
-101
61
18
36
-17
-168
12
0
30
47
-2
-41
